digraph Tree {
node [shape=box] ;
0 [label="X[0] <= 0.465\ngini = 0.362\nsamples = 11249\nvalue = [8575, 2674]"] ;
1 [label="X[2] <= 2.5\ngini = 0.476\nsamples = 3127\nvalue = [1221, 1906]"] ;
0 -> 1 [labeldistance=2.5, labelangle=45, headlabel="True"] ;
2 [label="X[1] <= 0.575\ngini = 0.216\nsamples = 1304\nvalue = [161, 1143]"] ;
1 -> 2 ;
3 [label="X[1] <= 0.455\ngini = 0.101\nsamples = 1203\nvalue = [64, 1139]"] ;
2 -> 3 ;
4 [label="gini = 0.482\nsamples = 84\nvalue = [34, 50]"] ;
3 -> 4 ;
5 [label="X[3] <= 159.5\ngini = 0.052\nsamples = 1119\nvalue = [30, 1089]"] ;
3 -> 5 ;
6 [label="gini = 0.033\nsamples = 1057\nvalue = [18, 1039]"] ;
5 -> 6 ;
7 [label="gini = 0.312\nsamples = 62\nvalue = [12, 50]"] ;
5 -> 7 ;
8 [label="X[0] <= 0.335\ngini = 0.076\nsamples = 101\nvalue = [97, 4]"] ;
2 -> 8 ;
9 [label="gini = 0.0\nsamples = 50\nvalue = [50, 0]"] ;
8 -> 9 ;
10 [label="gini = 0.145\nsamples = 51\nvalue = [47, 4]"] ;
8 -> 10 ;
11 [label="X[0] <= 0.115\ngini = 0.487\nsamples = 1823\nvalue = [1060, 763]"] ;
1 -> 11 ;
12 [label="gini = 0.0\nsamples = 674\nvalue = [0, 674]"] ;
11 -> 12 ;
13 [label="X[3] <= 276.5\ngini = 0.143\nsamples = 1149\nvalue = [1060, 89]"] ;
11 -> 13 ;
14 [label="X[3] <= 131.5\ngini = 0.123\nsamples = 1082\nvalue = [1011, 71]"] ;
13 -> 14 ;
15 [label="gini = 0.0\nsamples = 147\nvalue = [147, 0]"] ;
14 -> 15 ;
16 [label="gini = 0.14\nsamples = 935\nvalue = [864, 71]"] ;
14 -> 16 ;
17 [label="gini = 0.393\nsamples = 67\nvalue = [49, 18]"] ;
13 -> 17 ;
18 [label="X[4] <= 4.5\ngini = 0.171\nsamples = 8122\nvalue = [7354, 768]"] ;
0 -> 18 [labeldistance=2.5, labelangle=-45, headlabel="False"] ;
19 [label="X[2] <= 5.5\ngini = 0.029\nsamples = 6642\nvalue = [6545, 97]"] ;
18 -> 19 ;
20 [label="X[4] <= 3.5\ngini = 0.024\nsamples = 6517\nvalue = [6437, 80]"] ;
19 -> 20 ;
21 [label="X[2] <= 2.5\ngini = 0.016\nsamples = 5526\nvalue = [5482, 44]"] ;
20 -> 21 ;
22 [label="gini = 0.089\nsamples = 323\nvalue = [308, 15]"] ;
21 -> 22 ;
23 [label="gini = 0.011\nsamples = 5203\nvalue = [5174, 29]"] ;
21 -> 23 ;
24 [label="X[0] <= 0.905\ngini = 0.07\nsamples = 991\nvalue = [955, 36]"] ;
20 -> 24 ;
25 [label="gini = 0.085\nsamples = 814\nvalue = [778, 36]"] ;
24 -> 25 ;
26 [label="gini = 0.0\nsamples = 177\nvalue = [177, 0]"] ;
24 -> 26 ;
27 [label="X[0] <= 0.735\ngini = 0.235\nsamples = 125\nvalue = [108, 17]"] ;
19 -> 27 ;
28 [label="gini = 0.331\nsamples = 67\nvalue = [53, 14]"] ;
27 -> 28 ;
29 [label="gini = 0.098\nsamples = 58\nvalue = [55, 3]"] ;
27 -> 29 ;
30 [label="X[1] <= 0.805\ngini = 0.496\nsamples = 1480\nvalue = [809, 671]"] ;
18 -> 30 ;
31 [label="X[3] <= 248.5\ngini = 0.067\nsamples = 573\nvalue = [553, 20]"] ;
30 -> 31 ;
32 [label="X[2] <= 4.5\ngini = 0.038\nsamples = 459\nvalue = [450, 9]"] ;
31 -> 32 ;
33 [label="gini = 0.012\nsamples = 342\nvalue = [340, 2]"] ;
32 -> 33 ;
34 [label="gini = 0.112\nsamples = 117\nvalue = [110, 7]"] ;
32 -> 34 ;
35 [label="X[1] <= 0.625\ngini = 0.174\nsamples = 114\nvalue = [103, 11]"] ;
31 -> 35 ;
36 [label="gini = 0.144\nsamples = 64\nvalue = [59, 5]"] ;
35 -> 36 ;
37 [label="gini = 0.211\nsamples = 50\nvalue = [44, 6]"] ;
35 -> 37 ;
38 [label="X[3] <= 216.5\ngini = 0.405\nsamples = 907\nvalue = [256, 651]"] ;
30 -> 38 ;
39 [label="X[4] <= 6.5\ngini = 0.094\nsamples = 161\nvalue = [153, 8]"] ;
38 -> 39 ;
40 [label="gini = 0.178\nsamples = 81\nvalue = [73, 8]"] ;
39 -> 40 ;
41 [label="gini = 0.0\nsamples = 80\nvalue = [80, 0]"] ;
39 -> 41 ;
42 [label="X[4] <= 6.5\ngini = 0.238\nsamples = 746\nvalue = [103, 643]"] ;
38 -> 42 ;
43 [label="gini = 0.141\nsamples = 696\nvalue = [53, 643]"] ;
42 -> 43 ;
44 [label="gini = 0.0\nsamples = 50\nvalue = [50, 0]"] ;
42 -> 44 ;
}